{"learner":{"attributes":{"best_iteration":"9","best_ntree_limit":"10"},"feature_names":[],"feature_types":[],"gradient_booster":{"model":{"gbtree_model_param":{"num_parallel_tree":"1","num_trees":"10","size_leaf_vector":"0"},"tree_info":[0,0,0,0,0,0,0,0,0,0],"trees":[{"base_weights":[-0E0,1.9998726E0,-3.352028E-1,1.9997842E0,-5.9182715E-1,1.9995966E0,-7.5367045E-1,1.9993052E0,-8.572493E-1,1.9989994E0,-9.3385947E-1,1.9987696E0,-9.9925226E-1],"categories":[],"categories_nodes":[],"categories_segments":[],"categories_sizes":[],"default_left":[0,0,0,0,0,0,0,0,0,0,0,0,0],"id":0,"left_children":[1,-1,3,-1,5,-1,7,-1,9,-1,11,-1,-1],"loss_changes":[7.326999E4,0E0,5.6093062E4,0E0,3.5374297E4,0E0,2.2637914E4,0E0,1.674268E4,0E0,1.4290598E4,0E0,0E0],"parents":[2147483647,0,0,2,2,4,4,6,6,8,8,10,10],"right_children":[2,-1,4,-1,6,-1,8,-1,10,-1,12,-1,-1],"split_conditions":[5.263149E-2,5.999618E-1,2.906968E-3,5.999353E-1,2.9410403E-2,5.99879E-1,9.9999094E-1,5.997916E-1,9.9992967E-1,5.9969985E-1,9.9987537E-1,5.996309E-1,-2.997757E-1],"split_indices":[0,0,14,0,13,0,118,0,47,0,99,0,0],"split_type":[0,0,0,0,0,0,0,0,0,0,0,0,0],"sum_hessian":[1.09297E5,1.5689E4,9.3608E4,9.2685E3,8.43395E4,4.957E3,7.93825E4,2.87775E3,7.650475E4,1.99775E3,7.4507E4,1.6245E3,7.28825E4],"tree_param":{"num_deleted":"0","num_feature":"171","num_nodes":"13","size_leaf_vector":"0"}},{"base_weights":[4.5272037E-3,1.5487249E0,-2.4118744E-1,1.554453E0,-4.2678872E-1,1.5486621E0,2.1004627E0,1.5485383E0,-5.435241E-1,1.4367882E0,2.1971347E0,2.1001298E0,-6.129445E-1,1.3260672E0,2.2545557E0,1.5441562E0,2.2081258E0,2.0682042E0,-6.785969E-1,1.2922912E0,2.311731E0,1.5389669E0,2.2757528E0,1.5445E0,2.1906297E0,2.070334E0,-7.377748E-1],"categories":[],"categories_nodes":[],"categories_segments":[],"categories_sizes":[],"default_left":[0,0,0,0,0,0,0,0,0,0,0,0,0,0,0,0,0,0,0,0,0,0,0,0,0,0,0],"id":1,"left_children":[1,-1,3,5,7,-1,9,-1,11,-1,13,15,17,-1,19,-1,21,23,25,-1,-1,-1,-1,-1,-1,-1,-1],"loss_changes":[3.9687254E4,0E0,3.0074494E4,2.3476562E1,1.8859723E4,0E0,2.355194E0,0E0,1.4173412E4,0E0,6.6656494E-1,1.1524414E2,1.3246703E4,0E0,7.0703125E-1,0E0,7.1273926E1,1.1194336E2,1.194998E4,0E0,0E0,0E0,0E0,0E0,0E0,0E0,0E0],"parents":[2147483647,0,0,2,2,3,3,4,4,6,6,8,8,10,10,11,11,12,12,14,14,16,16,17,17,18,18],"right_children":[2,-1,4,6,8,-1,10,-1,12,-1,14,16,18,-1,20,-1,22,24,26,-1,-1,-1,-1,-1,-1,-1,-1],"split_conditions":[5.263149E-2,4.646175E-1,2.8735544E-3,5.8149174E-3,2.9410403E-2,4.6459863E-1,9.9984175E-1,4.6456152E-1,9.9993443E-1,4.3103647E-1,9.826083E-1,9.99298E-1,9.997161E-1,3.9782017E-1,9.991523E-1,4.6324688E-1,9.9992967E-1,1.9986763E0,9.999629E-1,3.8768736E-1,6.9351935E-1,4.616901E-1,6.8272585E-1,4.6335003E-1,6.5718895E-1,6.211002E-1,-2.2133245E-1],"split_indices":[0,0,12,14,13,0,118,0,78,0,47,118,100,0,99,0,47,99,155,0,0,0,0,0,0,0,0],"split_type":[0,0,0,0,0,0,0,0,0,0,0,0,0,0,0,0,0,0,0,0,0,0,0,0,0,0,0],"sum_hessian":[1.0459452E5,1.4357744E4,9.023678E4,8.452625E3,8.178416E4,8.367713E3,8.491202E1,4.562804E3,7.722135E4,1.28126955E1,7.209932E1,1.975143E3,7.524621E4,5.94891E0,6.615041E1,3.2374933E2,1.6513936E3,1.7977605E3,7.3448445E4,5.033795E0,6.1116615E1,1.5375642E2,1.4976372E3,3.432107E2,1.4545498E3,1.547131E3,7.190132E4],"tree_param":{"num_deleted":"0","num_feature":"171","num_nodes":"27","size_leaf_vector":"0"}},{"base_weights":[1.1677024E-2,1.3447605E0,-1.761173E-1,1.3479087E0,-3.147497E-1,1.3446958E0,1.5404896E0,2.0609152E0,-3.7869644E-1,1.340505E0,2.1860044E0,1.9490206E0,-4.4400564E-1,1.5816184E0,2.2738376E0,1.3411394E0,2.0739594E0,2.051859E0,-5.0182396E-1,1.2503635E0,1.619442E0,1.621272E0,2.3474035E0,1.6280577E0,2.1769488E0,1.3403296E0,2.201606E0,1.5378513E0,-5.7065034E-1],"categories":[],"categories_nodes":[],"categories_segments":[],"categories_sizes":[],"default_left":[0,0,0,0,0,0,0,0,0,0,0,0,0,0,0,0,0,0,0,0,0,0,0,0,0,0,0,0,0],"id":2,"left_children":[1,-1,3,5,7,-1,-1,9,11,-1,13,15,17,19,21,-1,23,25,27,-1,-1,-1,-1,-1,-1,-1,-1,-1,-1],"loss_changes":[2.4262742E4,0E0,1.7948604E4,2.3115234E0,1.1830132E4,0E0,0E0,1.8101367E2,1.1528258E4,0E0,8.8646484E1,1.5440186E2,1.0644929E4,7.7874756E-1,6.891797E1,0E0,7.5211426E1,1.7500586E2,1.0121074E4,0E0,0E0,0E0,0E0,0E0,0E0,0E0,0E0,0E0,0E0],"parents":[2147483647,0,0,2,2,3,3,4,4,7,7,8,8,10,10,11,11,12,12,13,13,14,14,16,16,17,17,18,18],"right_children":[2,-1,4,6,8,-1,-1,10,12,-1,14,16,18,20,22,-1,24,26,28,-1,-1,-1,-1,-1,-1,-1,-1,-1,-1],"split_conditions":[5.263149E-2,4.0342817E-1,2.906968E-3,2.8735544E-3,9.9999094E-1,4.0340877E-1,4.6214688E-1,2.9404124E-2,9.999836E-1,4.0215153E-1,9.9999094E-1,2.9409904E-2,9.999993E-1,1.9966128E0,9.987047E-1,4.0234184E-1,1.9995024E0,2.9410403E-2,9.999758E-1,3.7510905E-1,4.858326E-1,4.8638162E-1,7.0422107E-1,4.8841733E-1,6.5308464E-1,4.0209892E-1,6.604818E-1,4.6135542E-1,-1.711951E-1],"split_indices":[0,0,14,12,45,0,0,13,94,0,118,13,32,155,47,0,99,13,118,0,0,0,0,0,0,0,0,0,0],"split_type":[0,0,0,0,0,0,0,0,0,0,0,0,0,0,0,0,0,0,0,0,0,0,0,0,0,0,0,0,0],"sum_hessian":[9.691508E4,1.1966079E4,8.4949E4,7.082316E3,7.786668E4,6.9739473E3,1.0836865E2,2.0402118E3,7.582647E4,3.035771E2,1.7366348E3,2.0686284E3,7.375784E4,2.227668E2,1.5138679E3,3.5468176E2,1.7139467E3,1.6691823E3,7.208866E4,2.6319664E1,1.9644713E2,1.5570723E2,1.3581608E3,3.247447E2,1.389202E3,2.9194504E2,1.3772372E3,2.352444E3,6.973622E4],"tree_param":{"num_deleted":"0","num_feature":"171","num_nodes":"29","size_leaf_vector":"0"}},{"base_weights":[1.7181482E-2,1.2302552E0,-1.2788028E-1,1.3150634E0,-2.3358695E-1,1.2295756E0,1.355561E0,1.8510725E0,-2.960554E-1,1.2175484E0,1.3726795E0,1.2290814E0,1.9838741E0,1.2374146E0,-3.7437475E-1,1.2259725E0,1.3849802E0,1.3385202E0,2.0512242E0,1.2300417E0,1.5890633E0,2.0646565E0,-4.252553E-1,1.225167E0,1.3971614E0,2.4908879E0,1.9563292E0,1.3526793E0,2.1866407E0,2.141155E0,-4.7165143E-1],"categories":[],"categories_nodes":[],"categories_segments":[],"categories_sizes":[],"default_left":[0,0,0,0,0,0,0,0,0,0,0,0,0,0,0,0,0,0,0,0,0,0,0,0,0,0,0,0,0,0,0],"id":3,"left_children":[1,-1,3,5,7,-1,9,11,13,-1,15,-1,17,19,21,-1,23,-1,25,-1,-1,27,29,-1,-1,-1,-1,-1,-1,-1,-1],"loss_changes":[1.5736285E4,0E0,1.2183426E4,1.7208984E1,9.692326E3,0E0,7.0458984E0,1.7642627E2,8.678758E3,0E0,4.211914E0,0E0,7.474219E1,7.149414E0,8.532487E3,0E0,4.1552734E0,0E0,6.240039E1,0E0,0E0,1.1906787E2,8.019798E3,0E0,0E0,0E0,0E0,0E0,0E0,0E0,0E0],"parents":[2147483647,0,0,2,2,3,3,4,4,6,6,7,7,8,8,10,10,12,12,13,13,14,14,16,16,18,18,21,21,22,22],"right_children":[2,-1,4,6,8,-1,10,12,14,-1,16,-1,18,20,22,-1,24,-1,26,-1,-1,28,30,-1,-1,-1,-1,-1,-1,-1,-1],"split_conditions":[5.263149E-2,3.6907658E-1,2.9411674E-2,2.906968E-3,9.9998903E-1,3.688727E-1,9.999758E-1,2.9068226E-3,2.8734817E-3,3.6526453E-1,9.999367E-1,3.6872444E-1,9.997362E-1,5.814623E-3,9.999629E-1,3.6779177E-1,9.9906814E-1,4.0155607E-1,1.9999576E0,3.6901253E-1,4.76719E-1,9.996023E-1,9.997515E-1,3.6755013E-1,4.1914842E-1,7.472664E-1,5.868988E-1,4.058038E-1,6.5599227E-1,6.423465E-1,-1.4149544E-1],"split_indices":[0,0,13,14,95,0,118,14,12,0,94,0,118,14,69,0,32,0,98,0,0,118,52,0,0,0,0,0,0,0,0],"split_type":[0,0,0,0,0,0,0,0,0,0,0,0,0,0,0,0,0,0,0,0,0,0,0,0,0,0,0,0,0,0,0],"sum_hessian":[8.942374E4,9.550505E3,7.9873234E4,5.45115E3,7.4422086E4,1.7623395E3,3.6888105E3,2.1643997E3,7.225769E4,4.1501453E2,3.2737961E3,3.826183E2,1.7817815E3,3.5103943E3,6.874729E4,2.610463E2,3.0127498E3,1.7034987E2,1.6114316E3,3.44271E3,6.768441E1,1.4040195E3,6.734327E4,2.2056532E2,2.7921846E3,2.8157925E2,1.3298524E3,2.071352E2,1.1968843E3,1.1950269E3,6.614824E4],"tree_param":{"num_deleted":"0","num_feature":"171","num_nodes":"31","size_leaf_vector":"0"}},{"base_weights":[2.1520315E-2,1.1591254E0,-9.161317E-2,1.6993377E0,-1.5208173E-1,1.1605976E0,1.8174523E0,1.3441184E0,-2.2442411E-1,1.2282784E0,1.908858E0,1.2107406E0,2.1884801E0,1.5721335E0,-2.8447545E-1,2.4575784E0,1.8171926E0,1.1580844E0,1.237331E0,1.3716601E0,2.2893775E0,1.1567113E0,1.6497452E0,2.0419805E0,-3.3094332E-1,1.353271E0,2.5814967E0,1.735268E0,2.5251315E0,1.1472473E0,1.2478744E0,1.495245E0,2.3729904E0,1.2280973E0,1.6720141E0,1.1589489E0,2.2148716E0,2.0914907E0,-3.73465E-1],"categories":[],"categories_nodes":[],"categories_segments":[],"categories_sizes":[],"default_left":[0,0,0,0,0,0,0,0,0,0,0,0,0,0,0,0,1,0,0,0,0,0,0,0,0,0,0,0,0,0,0,0,0,0,0,0,0,0,0],"id":4,"left_children":[1,-1,3,5,7,-1,9,11,13,-1,15,17,19,21,23,25,27,-1,29,-1,31,-1,33,35,37,-1,-1,-1,-1,-1,-1,-1,-1,-1,-1,-1,-1,-1,-1],"loss_changes":[1.0584221E4,0E0,8.1008257E3,1.5335254E2,7.8322354E3,0E0,1.0547217E2,3.731997E2,7.446895E3,0E0,8.2618164E1,2.605957E0,3.427832E1,7.007568E1,7.221042E3,3.0031372E1,8.188086E1,0E0,3.7451172E-1,0E0,2.3185059E1,0E0,1.5588379E1,1.9713232E2,6.745917E3,0E0,0E0,0E0,0E0,0E0,0E0,0E0,0E0,0E0,0E0,0E0,0E0,0E0,0E0],"parents":[2147483647,0,0,2,2,3,3,4,4,6,6,7,7,8,8,10,10,11,11,12,12,13,13,14,14,15,15,16,16,18,18,20,20,22,22,23,23,24,24],"right_children":[2,-1,4,6,8,-1,10,12,14,-1,16,18,20,22,24,26,28,-1,30,-1,32,-1,34,36,38,-1,-1,-1,-1,-1,-1,-1,-1,-1,-1,-1,-1,-1,-1],"split_conditions":[5.263149E-2,3.4773764E-1,9.9998915E-1,2.9053323E-3,4.1666538E-2,3.4817928E-1,2.9393535E-2,2.9411674E-2,9.9992967E-1,3.6848354E-1,9.9683416E-1,2.906968E-3,9.931574E-1,2.872707E-3,9.999629E-1,9.9560535E-1,9.366814E-3,3.4742534E-1,9.995606E-1,4.1149804E-1,9.9956584E-1,3.470134E-1,2.9405218E-2,2.9067006E-3,9.999342E-1,4.0598133E-1,7.7444905E-1,5.205804E-1,7.5753945E-1,3.441742E-1,3.7436232E-1,4.485735E-1,7.1189713E-1,3.684292E-1,5.0160426E-1,3.4768468E-1,6.644615E-1,6.2744725E-1,-1.1203951E-1],"split_indices":[0,0,98,14,15,0,13,13,47,0,96,14,118,12,40,118,97,0,118,0,94,0,13,14,24,0,0,0,0,0,0,0,0,0,0,0,0,0,0],"split_type":[0,0,0,0,0,0,0,0,0,0,0,0,0,0,0,0,0,0,0,0,0,0,0,0,0,0,0,0,0,0,0,0,0,0,0,0,0,0,0],"sum_hessian":[8.223686E4,7.437763E3,7.47991E4,2.4421018E3,7.2357E4,4.4108167E2,2.0010203E3,3.3363494E3,6.902065E4,2.7068738E2,1.7303328E3,2.883325E3,4.5302432E2,2.231633E3,6.6789016E4,2.439868E2,1.4863461E3,9.8242267E2,1.9009023E3,5.1411793E1,4.0161252E2,3.5379938E2,1.8778336E3,1.3070579E3,6.5481957E4,2.5819063E1,2.1816774E2,1.3352754E3,1.5107062E2,2.1067462E2,1.6902277E3,4.0055912E1,3.615566E2,9.701761E1,1.780816E3,2.1527208E2,1.0917858E3,1.1287644E3,6.435319E4],"tree_param":{"num_deleted":"0","num_feature":"171","num_nodes":"39","size_leaf_vector":"0"}},{"base_weights":[2.3297548E-2,1.1431919E0,-6.498528E-2,1.140148E0,1.297197E0,-3.247672E-1,3.3470455E-1,1.1117636E0,1.1506343E0,2.0328703E0,-3.6426383E-1,1.7500747E0,4.4647828E-2,1.1112193E0,1.1606598E0,1.1037368E0,2.231243E0,2.015861E0,-3.992852E-1,1.1667492E0,1.9323752E0,-8.15479E-1,2.8077942E-1,1.3620771E0,2.3537173E0,1.1026434E0,2.2167604E0,1.5190334E0,-4.4226423E-1,1.1107032E0,2.100925E0,1.1532996E0,-8.482309E-1,1.7815369E0,-2.0652626E-2,1.4152486E0,2.4368308E0,1.3742728E0,2.3165796E0,1.3010677E0,2.2257442E0,1.5215411E0,-4.829807E-1,1.9672E0,2.7557557E0,2.3971157E0,-8.576547E-1,1.1684915E0,1.9543597E0,-8.581294E-1,2.1457961E-1],"categories":[],"categories_nodes":[],"categories_segments":[],"categories_sizes":[],"default_left":[0,0,1,0,0,0,0,0,0,0,0,0,0,0,0,0,0,0,0,0,0,0,0,0,0,0,0,1,0,0,0,0,0,0,0,0,0,0,0,0,0,0,0,0,0,0,0,0,0,0,0],"id":5,"left_children":[1,3,5,7,-1,9,11,-1,13,15,17,19,21,-1,-1,-1,23,25,27,-1,29,31,33,-1,35,-1,37,39,41,-1,43,-1,45,47,49,-1,-1,-1,-1,-1,-1,-1,-1,-1,-1,-1,-1,-1,-1,-1,-1],"loss_changes":[7.587026E3,1.1494141E0,7.385921E3,3.6035156E-1,0E0,4.0152744E3,1.1503675E4,0E0,2.8808594E-1,1.2849121E2,3.5352754E3,5.04542E2,4.7236777E3,0E0,0E0,0E0,5.901538E1,1.10392334E2,3.4460278E3,0E0,5.0032422E2,3.2400586E2,8.254898E3,0E0,3.640454E1,0E0,3.9128662E1,1.3819751E2,3.2689492E3,0E0,2.5820703E2,0E0,1.5277856E2,3.2108203E2,2.9939497E3,0E0,0E0,0E0,0E0,0E0,0E0,0E0,0E0,0E0,0E0,0E0,0E0,0E0,0E0,0E0,0E0],"parents":[2147483647,0,0,1,1,2,2,3,3,5,5,6,6,8,8,9,9,10,10,11,11,12,12,16,16,17,17,18,18,20,20,21,21,22,22,24,24,26,26,27,27,28,28,30,30,32,32,33,33,34,34],"right_children":[2,4,6,8,-1,10,12,-1,14,16,18,20,22,-1,-1,-1,24,26,28,-1,30,32,34,-1,36,-1,38,40,42,-1,44,-1,46,48,50,-1,-1,-1,-1,-1,-1,-1,-1,-1,-1,-1,-1,-1,-1,-1,-1],"split_conditions":[2.906968E-3,2.8735544E-3,2.9070284E-3,5.2626975E-2,3.891591E-1,9.9976933E-1,5.813843E-3,3.3352908E-1,4.1664757E-2,5.2614607E-2,9.995323E-1,2.9410228E-2,5.8139795E-3,3.333658E-1,3.4819794E-1,3.3112103E-1,9.997362E-1,5.259551E-2,5.2629992E-2,3.500248E-1,5.2629206E-2,2.9384358E-2,8.720819E-3,4.0862316E-1,9.9976933E-1,3.3079302E-1,9.9893457E-1,1.9386802E-3,9.997965E-1,3.3321097E-1,2.000001E0,3.4598988E-1,9.9344325E-1,2.940943E-2,8.72094E-3,4.245746E-1,7.3104924E-1,4.1228187E-1,6.949739E-1,3.9032033E-1,6.677233E-1,4.5646235E-1,-1.4489421E-1,5.9016E-1,8.2672673E-1,7.1913475E-1,-2.572964E-1,3.5054746E-1,5.8630794E-1,-2.5743884E-1,6.437389E-2],"split_indices":[14,12,14,0,0,65,14,0,15,0,22,13,14,0,0,0,118,0,10,0,0,13,14,0,47,0,118,46,78,0,7,0,17,13,14,0,0,0,0,0,0,0,0,0,0,0,0,0,0,0,0],"split_type":[0,0,0,0,0,0,0,0,0,0,0,0,0,0,0,0,0,0,0,0,0,0,0,0,0,0,0,0,0,0,0,0,0,0,0,0,0,0,0,0,0,0,0,0,0,0,0,0,0,0,0],"sum_hessian":[7.6737625E4,5.6064287E3,7.1131195E4,5.506007E3,1.00422264E2,4.3111004E4,2.802019E4,1.5142401E3,3.9917666E3,7.094911E2,4.240151E4,4.7647803E3,2.3255408E4,8.3212604E2,3.1596404E3,1.2598216E2,5.835089E2,6.140323E2,4.178748E4,1.1362869E3,3.6284934E3,5.008634E3,1.8246775E4,7.356446E1,5.0994446E2,1.1189324E2,5.02139E2,9.149605E2,4.087252E4,6.1891235E2,3.009581E3,8.139857E1,4.9272354E3,3.051112E3,1.5195662E4,4.2954575E1,4.6698987E2,5.4756268E1,4.4738275E2,7.014563E2,2.135042E2,8.294765E2,4.0043043E4,2.5025352E3,5.0704572E2,1.3532642E1,4.9137026E3,6.7268616E2,2.3784258E3,3.3316462E3,1.1864017E4],"tree_param":{"num_deleted":"0","num_feature":"171","num_nodes":"51","size_leaf_vector":"0"}},{"base_weights":[2.2475015E-2,1.0961187E0,-5.5737175E-2,1.0140315E-1,-5.788875E-1,1.4876276E0,5.0121583E-2,1.6940224E0,-6.16612E-1,1.266768E0,1.6548735E0,1.630969E0,7.006231E-3,1.3761779E0,1.9660016E0,1.3737235E0,-6.5752804E-1,1.1061851E0,1.3621031E0,1.596661E0,1.9395587E0,1.3721035E0,1.83719E0,1.4755254E0,-4.0294074E-2,1.0834637E0,1.5302367E0,1.098323E0,2.051056E0,1.1995995E0,1.5112334E0,1.5405988E0,-6.9239223E-1,1.0799755E0,1.4160794E0,1.2102946E0,1.6293074E0,9.5249844E-1,1.9699575E0,1.1050057E0,1.5026872E0,1.1690472E0,1.8866282E0,1.2863209E0,1.6525875E0,1.5283175E0,-8.243679E-2,1.0887179E0,1.6666509E0,1.2567812E0,2.156754E0,1.1221602E0,1.5553411E0,1.0827711E0,1.6088374E0,1.7451994E0,-7.216195E-1],"categories":[],"categories_nodes":[],"categories_segments":[],"categories_sizes":[],"default_left":[0,0,0,0,0,0,0,0,0,0,1,0,0,0,0,0,0,0,0,0,0,0,0,0,0,0,0,0,0,0,0,0,0,0,0,0,0,0,0,0,0,0,0,0,0,0,0,0,0,0,0,0,0,0,0,0,0],"id":6,"left_children":[1,-1,3,5,7,9,11,13,15,17,19,21,23,25,27,29,31,-1,33,35,37,39,41,43,45,-1,47,-1,49,-1,51,53,55,-1,-1,-1,-1,-1,-1,-1,-1,-1,-1,-1,-1,-1,-1,-1,-1,-1,-1,-1,-1,-1,-1,-1,-1],"loss_changes":[5.9513774E3,0E0,5.4308223E3,3.6113691E3,1.3094712E3,6.484619E1,3.339177E3,1.8854553E1,1.2233677E3,1.0514648E1,1.394043E1,6.691455E1,3.3127864E3,3.6784973E0,7.493622E0,5.4348755E0,1.1283442E3,0E0,5.90802E0,8.865234E0,3.2207642E0,1.8592896E1,2.1610596E1,4.7730957E1,3.0544937E3,0E0,2.7091217E0,0E0,7.290161E0,0E0,1.0910645E0,5.442688E0,1.0329155E3,0E0,0E0,0E0,0E0,0E0,0E0,0E0,0E0,0E0,0E0,0E0,0E0,0E0,0E0,0E0,0E0,0E0,0E0,0E0,0E0,0E0,0E0,0E0,0E0],"parents":[2147483647,0,0,2,2,3,3,4,4,5,5,6,6,7,7,8,8,9,9,10,10,11,11,12,12,13,13,14,14,15,15,16,16,18,18,19,19,20,20,21,21,22,22,23,23,24,24,26,26,28,28,30,30,31,31,32,32],"right_children":[2,-1,4,6,8,10,12,14,16,18,20,22,24,26,28,30,32,-1,34,36,38,40,42,44,46,-1,48,-1,50,-1,52,54,56,-1,-1,-1,-1,-1,-1,-1,-1,-1,-1,-1,-1,-1,-1,-1,-1,-1,-1,-1,-1,-1,-1,-1,-1],"split_conditions":[5.263149E-2,3.288356E-1,2.000001E0,9.9999094E-1,9.9995947E-1,8.618625E-3,9.9995726E-1,8.641848E-3,9.995086E-1,2.8732433E-3,9.789191E-1,8.61937E-3,9.999629E-1,2.9060033E-3,2.9376337E-2,8.65886E-3,9.998151E-1,3.3185554E-1,2.9404124E-2,9.989555E-1,2.9245127E-2,2.9068524E-3,2.9357392E-2,9.259547E-3,9.999993E-1,3.2503912E-1,2.9573336E-2,3.2949692E-1,9.9768186E-1,3.5987985E-1,9.993671E-1,2.9376732E-2,9.997556E-1,3.2399267E-1,4.2482385E-1,3.630884E-1,4.8879224E-1,2.8574955E-1,5.9098727E-1,3.3150172E-1,4.5080617E-1,3.5071418E-1,5.659885E-1,3.858963E-1,4.9577627E-1,4.5849526E-1,-2.4731038E-2,3.266154E-1,4.999953E-1,3.770344E-1,6.4702624E-1,3.3664808E-1,4.6660236E-1,3.2483134E-1,4.8265123E-1,5.2355987E-1,-2.1648586E-1],"split_indices":[0,0,45,45,73,12,96,12,95,12,36,12,155,14,13,14,40,0,13,78,13,14,13,12,32,0,13,0,118,0,118,13,19,0,0,0,0,0,0,0,0,0,0,0,0,0,0,0,0,0,0,0,0,0,0,0,0],"split_type":[0,0,0,0,0,0,0,0,0,0,0,0,0,0,0,0,0,0,0,0,0,0,0,0,0,0,0,0,0,0,0,0,0,0,0,0,0,0,0,0,0,0,0,0,0,0,0,0,0,0,0,0,0,0,0,0,0],"sum_hessian":[7.087161E4,4.8113706E3,6.606024E4,5.0801605E4,1.5258633E4,1.8112966E3,4.899031E4,2.4840254E2,1.50102295E4,7.842349E2,1.0270616E3,1.299689E3,4.769062E4,1.1733761E2,1.3106494E2,3.0169888E2,1.4708531E4,2.968398E2,4.8739508E2,8.581877E2,1.6887401E2,5.796804E2,7.200086E2,1.4872172E3,4.6203402E4,4.323093E1,7.410668E1,1.2942772E1,1.1812216E2,1.3741676E2,1.6428214E2,2.289731E2,1.4479558E4,8.164648E1,4.0574863E2,6.983017E1,7.883575E2,6.0115128E0,1.628625E2,1.9345244E2,3.8622797E2,5.130335E1,6.6870526E2,7.229522E2,7.6426495E2,1.2079128E3,4.4995492E4,1.961184E1,5.449484E1,1.538687E1,1.0273529E2,1.9419981E1,1.4486215E2,3.1889145E1,1.9708395E2,1.7086069E2,1.4308697E4],"tree_param":{"num_deleted":"0","num_feature":"171","num_nodes":"57","size_leaf_vector":"0"}},{"base_weights":[2.17116E-2,1.0956365E0,-4.276212E-2,1.0916494E0,1.2924907E0,1.6549811E0,-8.237615E-2,1.0567831E0,1.1018184E0,1.0675987E0,1.7633307E0,1.2593544E0,-1.3117082E-1,1.1472633E0,1.8445089E0,1.0706604E0,1.3044608E0,1.8718446E0,-1.6367988E-1,1.3383391E0,1.9084561E0,1.0922883E0,1.3306565E0,1.065917E0,2.0071332E0,1.7537539E0,-1.9732793E-1,1.4884323E0,2.001713E0,1.1221546E0,1.3504584E0,1.1472092E0,2.1124933E0,1.0551308E0,1.8580562E0,1.4011611E0,-2.3747449E-1],"categories":[],"categories_nodes":[],"categories_segments":[],"categories_sizes":[],"default_left":[0,0,0,0,0,0,0,0,0,0,0,0,0,0,0,0,0,0,0,0,0,0,0,0,0,0,0,0,0,0,0,0,0,0,0,0,0],"id":7,"left_children":[1,3,5,7,-1,9,11,-1,-1,-1,13,15,17,-1,19,-1,21,23,25,-1,27,-1,29,-1,31,33,35,-1,-1,-1,-1,-1,-1,-1,-1,-1,-1],"loss_changes":[4.630552E3,1.5620117E0,4.243194E3,1.5429688E-1,0E0,8.967212E1,4.0364814E3,0E0,0E0,0E0,5.8547607E1,1.7017822E1,3.8740352E3,0E0,3.2083984E1,0E0,8.226074E0,1.0146118E2,3.777246E3,0E0,3.4144287E1,0E0,4.8657227E0,0E0,7.11875E1,7.161255E1,3.6923608E3,0E0,0E0,0E0,0E0,0E0,0E0,0E0,0E0,0E0,0E0],"parents":[2147483647,0,0,1,1,2,2,3,3,5,5,6,6,10,10,11,11,12,12,14,14,16,16,17,17,18,18,20,20,22,22,24,24,25,25,26,26],"right_children":[2,4,6,8,-1,10,12,-1,-1,-1,14,16,18,-1,20,-1,22,24,26,-1,28,-1,30,-1,32,34,36,-1,-1,-1,-1,-1,-1,-1,-1,-1,-1],"split_conditions":[2.8735544E-3,5.8149174E-3,9.9999833E-1,5.2616734E-2,3.8774723E-1,5.263149E-2,9.9999094E-1,3.1703493E-1,3.3054554E-1,3.2027963E-1,2.9404957E-2,5.2629206E-2,9.999765E-1,3.44179E-1,9.9944437E-1,3.211981E-1,2.9410403E-2,5.2628808E-2,9.9994624E-1,4.0150174E-1,1.9925559E0,3.276865E-1,1.9994988E0,3.197751E-1,2.9376337E-2,5.2626405E-2,9.9998915E-1,4.4652972E-1,6.0051394E-1,3.3664638E-1,4.0513754E-1,3.4416276E-1,6.33748E-1,3.1653926E-1,5.5741686E-1,4.2034835E-1,-7.124235E-2],"split_indices":[12,14,84,0,0,0,118,0,0,0,13,0,61,0,118,0,13,0,22,0,78,0,155,0,13,0,98,0,0,0,0,0,0,0,0,0,0],"split_type":[0,0,0,0,0,0,0,0,0,0,0,0,0,0,0,0,0,0,0,0,0,0,0,0,0,0,0,0,0,0,0,0,0,0,0,0,0],"sum_hessian":[6.687522E4,3.7866023E3,6.3088617E4,3.7178464E3,6.875572E1,1.4375737E3,6.1651043E4,8.6318207E2,2.8546643E3,2.255703E2,1.2120035E3,2.1625151E3,5.9488527E4,1.4287184E2,1.0691316E3,4.2197964E2,1.7405356E3,9.4917865E2,5.8539348E4,1.2237887E2,9.467528E2,1.9597084E2,1.5445648E3,1.3770926E2,8.1146936E2,1.0086786E3,5.7530668E4,1.7509499E2,7.716578E2,1.389691E2,1.4055957E3,8.9868965E1,7.216004E2,1.3247424E2,8.7620435E2,1.4086703E3,5.6122E4],"tree_param":{"num_deleted":"0","num_feature":"171","num_nodes":"37","size_leaf_vector":"0"}},{"base_weights":[2.2198427E-2,1.1153425E0,-3.467037E-2,1.0554323E0,1.1350081E0,1.6680385E0,-7.011241E-2,1.0626281E0,1.1528097E0,1.0501039E0,1.7606609E0,1.8453958E0,-1.0024565E-1,1.1324879E0,1.1904204E0,1.0726805E0,1.8373281E0,1.0605965E0,1.9795436E0,1.3207097E0,-1.4079036E-1,1.1823661E0,1.8953416E0,1.0788232E0,2.0795932E0,1.0623404E0,1.3706884E0,1.5882374E0,-1.748475E-1,1.8019131E0,2.2768319E0,1.5563612E0,2.248154E0,1.2313243E0,1.4538374E0,1.2709881E0,1.9179E0,1.5816852E0,-2.0637618E-1],"categories":[],"categories_nodes":[],"categories_segments":[],"categories_sizes":[],"default_left":[0,0,0,0,0,0,0,0,0,0,0,0,0,0,0,0,0,0,0,0,0,0,1,0,1,0,0,0,0,0,0,0,0,0,0,0,0,0,0],"id":8,"left_children":[1,3,5,-1,7,9,11,-1,13,-1,15,17,19,-1,-1,-1,21,-1,23,25,27,-1,29,-1,31,-1,33,35,37,-1,-1,-1,-1,-1,-1,-1,-1,-1,-1],"loss_changes":[3.9344956E3,2.489746E0,3.6306812E3,0E0,1.7939453E0,6.836426E1,3.401955E3,0E0,8.0322266E-2,0E0,5.42229E1,9.400073E1,3.343044E3,0E0,0E0,0E0,3.4127686E1,0E0,6.790405E1,1.933081E1,3.3222969E3,0E0,2.7177246E1,0E0,5.8195557E1,0E0,1.3800537E1,1.1154443E2,3.064333E3,0E0,0E0,0E0,0E0,0E0,0E0,0E0,0E0,0E0,0E0],"parents":[2147483647,0,0,1,1,2,2,4,4,5,5,6,6,8,8,10,10,11,11,12,12,16,16,18,18,19,19,20,20,22,22,24,24,26,26,27,27,28,28],"right_children":[2,4,6,-1,8,10,12,-1,14,-1,16,18,20,-1,-1,-1,22,-1,24,26,28,-1,30,-1,32,-1,34,36,38,-1,-1,-1,-1,-1,-1,-1,-1,-1,-1],"split_conditions":[2.9411674E-2,2.906968E-3,9.9993646E-1,3.166297E-1,5.262883E-2,5.2614607E-2,9.99913E-1,3.1878847E-1,4.158565E-2,3.1503117E-1,2.8725034E-3,5.2626386E-2,9.9999857E-1,3.397464E-1,3.5712612E-1,3.2180417E-1,9.997362E-1,3.1817895E-1,2.8707497E-3,5.262935E-2,9.999864E-1,3.5470986E-1,8.708212E-3,3.2364696E-1,9.992801E-1,3.1870213E-1,8.619523E-3,1.9997199E0,9.9988353E-1,5.4057395E-1,6.8304956E-1,4.6690837E-1,6.744462E-1,3.693973E-1,4.3615124E-1,3.8129646E-1,5.7537E-1,4.7450557E-1,-6.1912857E-2],"split_indices":[13,14,65,0,0,0,19,0,15,0,12,0,99,0,0,0,118,0,12,0,49,0,14,0,45,0,12,47,24,0,0,0,0,0,0,0,0,0,0],"split_type":[0,0,0,0,0,0,0,0,0,0,0,0,0,0,0,0,0,0,0,0,0,0,0,0,0,0,0,0,0,0,0,0,0,0,0,0,0,0,0],"sum_hessian":[6.3288746E4,3.1287446E3,6.016E4,7.8671857E2,2.342026E3,1.2257626E3,5.893424E4,4.742912E2,1.8677347E3,1.6138866E2,1.0643739E3,9.1181476E2,5.8022426E4,1.2327599E3,6.34975E2,1.08222305E2,9.561516E2,1.3440671E2,7.774081E2,1.608773E3,5.6413652E4,7.9540054E1,8.766116E2,7.889756E1,6.985105E2,2.6436578E2,1.3444071E3,1.0888494E3,5.53248E4,7.0875726E2,1.6785431E2,1.72691E2,5.258195E2,5.0828766E2,8.361195E2,5.5734576E2,5.3150366E2,9.7466876E2,5.4350133E4],"tree_param":{"num_deleted":"0","num_feature":"171","num_nodes":"39","size_leaf_vector":"0"}},{"base_weights":[2.1839391E-2,1.0599601E0,-3.0753702E-2,1.3413455E0,-6.761777E-2,1.1954726E0,1.4416978E0,1.3413864E0,-1.0370008E-1,1.0618445E0,1.2559118E0,1.4034672E0,1.714739E0,1.0681455E0,1.386687E0,1.5058914E0,-1.35507E-1,1.0468115E0,1.292677E0,1.0518637E0,1.4177183E0,8.456063E-1,1.7365398E0,1.0974399E0,1.4225131E0,1.2860278E0,1.6595765E0,1.5460774E0,-1.6471966E-1,1.1474438E0,1.4380647E0,1.1422426E0,1.7759383E0,1.0934483E0,1.4522082E0,1.0621216E0,1.3810863E0,1.1301926E0,1.7127938E0,1.3444172E0,1.6820531E0,1.4464322E0,-1.9488627E-1],"categories":[],"categories_nodes":[],"categories_segments":[],"categories_sizes":[],"default_left":[0,0,0,0,0,0,1,0,0,0,0,0,0,0,0,0,0,0,0,0,0,0,0,0,0,0,0,0,0,0,0,0,0,0,0,0,0,0,0,0,0,0,0],"id":9,"left_children":[1,-1,3,5,7,9,11,13,15,-1,17,19,21,-1,23,25,27,-1,-1,-1,29,-1,31,-1,33,35,37,39,41,-1,-1,-1,-1,-1,-1,-1,-1,-1,-1,-1,-1,-1,-1],"loss_changes":[3.2927708E3,0E0,2.9035366E3,2.0262451E1,2.8421443E3,3.6574097E0,6.8308105E0,1.5796875E1,2.7907002E3,0E0,1.8759766E0,2.4259033E0,5.055237E-1,0E0,1.0811523E1,3.3557617E1,2.625941E3,0E0,0E0,0E0,2.4655762E0,0E0,3.288269E-1,0E0,8.760498E0,7.8773193E0,1.5482422E1,2.276831E1,2.5538286E3,0E0,0E0,0E0,0E0,0E0,0E0,0E0,0E0,0E0,0E0,0E0,0E0,0E0,0E0],"parents":[2147483647,0,0,2,2,3,3,4,4,5,5,6,6,7,7,8,8,10,10,11,11,12,12,14,14,15,15,16,16,20,20,22,22,24,24,25,25,26,26,27,27,28,28],"right_children":[2,-1,4,6,8,10,12,14,16,-1,18,20,22,-1,24,26,28,-1,-1,-1,30,-1,32,-1,34,36,38,40,42,-1,-1,-1,-1,-1,-1,-1,-1,-1,-1,-1,-1,-1,-1],"split_conditions":[5.263149E-2,3.1798804E-1,9.999836E-1,8.719595E-3,9.9993443E-1,2.8734403E-3,6.7966087E-3,2.9067006E-3,9.999372E-1,3.1855336E-1,2.9409904E-2,2.9379971E-2,2.9219754E-2,3.2044366E-1,2.940943E-2,8.61453E-3,9.999629E-1,3.1404346E-1,3.8780314E-1,3.1555912E-1,9.98253E-1,2.536819E-1,9.9524444E-1,3.2923198E-1,9.99298E-1,2.9045779E-3,9.997362E-1,8.618576E-3,9.999993E-1,3.4423316E-1,4.3141943E-1,3.4267277E-1,5.327815E-1,3.280345E-1,4.3566248E-1,3.186365E-1,4.1432592E-1,3.390578E-1,5.138382E-1,4.0332517E-1,5.0461596E-1,4.3392968E-1,-5.8465883E-2],"split_indices":[0,0,94,14,78,12,97,14,52,0,13,13,13,0,13,12,40,0,0,0,118,0,118,0,118,14,118,12,32,0,0,0,0,0,0,0,0,0,0,0,0,0,0],"split_type":[0,0,0,0,0,0,0,0,0,0,0,0,0,0,0,0,0,0,0,0,0,0,0,0,0,0,0,0,0,0,0,0,0,0,0,0,0,0,0,0,0,0,0],"sum_hessian":[6.030779E4,2.9070557E3,5.7400734E4,1.5009049E3,5.589983E4,6.169761E2,8.839288E2,1.3948575E3,5.450497E4,1.979303E2,4.1904575E2,7.8074994E2,1.0317886E2,2.0186182E2,1.1929957E3,1.055296E3,5.3449676E4,6.706868E1,3.5197708E2,3.332641E1,7.474235E2,3.498337E0,9.968053E1,1.3496541E2,1.0580303E3,4.380232E2,6.1727277E2,9.1179144E2,5.2537883E4,5.634558E1,6.9107794E2,8.062073E0,9.1618454E1,9.0705246E1,9.673251E2,1.3416855E2,3.0385464E2,5.8415543E1,5.5885724E2,3.715894E2,5.40202E2,9.6475696E2,5.1573125E4],"tree_param":{"num_deleted":"0","num_feature":"171","num_nodes":"43","size_leaf_vector":"0"}}]},"name":"gbtree"},"learner_model_param":{"base_score":"5E-1","num_class":"0","num_feature":"171","num_target":"1"},"objective":{"name":"binary:logistic","reg_loss_param":{"scale_pos_weight":"1"}}},"version":[1,6,1]}